,0,1,2,3,4,5,6,7,8,9,10,11,12,13,14,15,16,17,18,19,20,21,22,23,24,25,26,27,28,29,30,31,32,33,34,35,36,37,38,39,40,41,42,43,44,45,46,47,48,49,50,51,52,53,54,55,56,57,58,59,60,61,62,63,64,65,66,67,68,69,70,71,72,73,74
control01,3.1193073,0.8526927,-0.57619995,-0.36074424,0.06089231,-0.6386887,-0.8360116,0.2082585,-0.027948903,-0.35077977,0.22030452,-0.2530907,-0.2857986,1.0615991,0.12992027,1.5106776,-0.38015118,0.6326986,0.02589858,-0.46391454,0.7703171,0.13889532,0.62630737,0.45616922,0.2711986,-1.3436397,0.67011786,-0.28895319,-0.7167274,-0.7495833,-0.0044172863,0.96935296,1.0642315,0.22460279,-0.44477075,-0.45552945,0.43149018,-0.8367394,-0.30953705,0.60415316,0.60845906,-1.6650572,0.8943577,-0.59736973,-0.72342235,0.06827523,-1.7990083,-0.49736685,-1.190709,-0.5759246,-0.3124986,-1.1192207,0.5359323,0.6074277,-1.5329564,0.09786902,-0.49627566,0.81922483,0.43108666,1.596088,-0.76843625,-0.6596348,0.01223068,0.118487686,-1.0035182,-0.71653265,-0.24131212,0.32793233,1.2697755,0.18465033,0.64768994,-1.0586351,1.74307,-0.33477855,0.5435839
control02,2.0506983,-0.3810616,-0.383609,-0.30755836,-0.25569484,-0.8866462,-0.7821793,-0.46499306,-0.2803121,-0.64314324,-0.005038169,-0.0046706195,-0.7967062,-0.111049585,0.5718706,1.1674845,0.33888787,1.0819727,-0.40596357,-0.5166143,-0.7042991,0.29764548,0.21252602,0.79060555,0.35455325,-1.3770049,0.08769123,0.13691081,-1.4503832,-0.57448953,-0.49376175,0.97800785,1.1896731,0.014344765,-1.0830837,-0.3342725,0.81117994,-0.8061372,-1.3178965,1.0690277,1.2319998,-0.25722343,1.0088763,-0.198545,-0.419931,1.2016352,-1.799685,0.20399974,-1.352652,-1.2008173,0.2864907,-2.0616784,0.4481761,-0.07098991,-1.5896138,-0.34415996,0.2784738,1.1914134,-0.5513741,0.8076498,-1.4388179,-0.8651031,0.27989712,1.321777,-1.2214509,-0.37347057,0.2587889,1.2168673,1.2216036,0.8930825,1.3492967,-0.7917806,0.3638032,-0.5088996,0.33436844
control03,1.9417038,-0.4594269,0.36574137,-0.27687806,0.49276704,-0.30136734,-0.52288884,-0.02745032,0.02513863,-0.24726625,0.49918073,0.14562932,0.09199477,-0.46461752,-0.52849543,1.3117647,-0.08905622,0.63109094,-0.3455744,-0.26171404,-0.0067879236,-0.6338678,0.7166623,0.32887655,0.37993625,-0.655687,1.2570958,-0.21113774,-1.1323607,-0.89145154,-0.31427714,0.73408985,0.56667984,-0.27296674,-0.8846048,-0.640486,-0.22938836,-0.980059,-0.45903847,1.0394783,1.8667089,-0.5299456,1.4134158,-0.9192766,-0.8599023,2.2352345,-2.2368507,-0.2805376,-0.88216877,-0.5511842,-0.010097638,-2.9644845,0.48536322,0.27079308,-1.5264175,0.29377207,-1.0170057,1.7308682,0.41215134,0.8456569,-1.0858428,-0.71246266,0.4178861,1.7810735,-1.1768838,-0.3813164,-0.4554679,0.7155925,1.2989062,-0.16946842,0.13578245,-0.6975679,1.4781432,0.21473014,0.9395557
control04,2.1623495,0.08166687,0.00037648855,-0.38853306,0.045651782,-0.92612284,-0.95548284,-0.4927733,-0.48871806,-1.4349178,-0.07981087,-0.23750377,-0.32474795,-0.5104357,0.21333197,1.8258299,0.068138316,1.8499973,-0.39634886,-0.6633012,-0.42816097,-0.41332096,0.7891772,0.18517418,0.025659345,-1.4907085,0.55361766,0.165871,-0.93885636,-0.26237032,-0.66742796,0.79458815,0.3294593,1.0985751,-0.41933557,-0.17507416,0.07288137,-0.2890786,-1.3801515,0.48385146,0.81038094,-1.367413,0.47430056,0.23631743,-1.242445,0.9676698,-2.0879147,0.54034024,-2.144705,0.28034732,-0.019104704,-0.505462,0.7829248,0.31987026,-1.7950644,0.5571193,-0.06025543,0.6868254,-1.0186964,0.9087595,-1.5408424,-0.082709394,0.22390175,0.938873,-1.3243419,-0.69155014,-0.010672153,-0.2769781,1.0251007,0.9193034,0.21265471,0.26735067,1.4690158,-0.8571723,0.5409607
control05,2.4839804,-0.4998802,-0.07285169,0.57346046,0.0078103067,-1.5449086,-0.1648924,-0.7150967,-0.21114899,-1.2837068,0.49997774,0.33905262,-0.119088255,0.30640244,-0.81354886,0.5063924,-0.0076850476,0.089968584,-0.77501833,-1.198554,0.50050706,0.13175993,-0.08945459,0.84519804,0.15158293,-2.025977,1.0716183,0.0246056,-1.5439974,-1.0625721,-0.146742,0.90005183,0.88502336,0.15571547,-0.5379092,-0.1900608,-0.18166155,-0.22310823,-0.43356523,0.6829846,0.7818401,-0.67789257,0.8237932,-0.4447439,-0.9339294,1.3582729,-1.1156512,0.32409632,-0.69507426,-0.17454189,0.7733952,-1.3791559,0.53151983,0.44146994,-1.1638451,-0.23205024,-0.50138164,1.0786906,0.14524272,1.0811747,-0.009863535,0.24619003,0.07077476,0.6844349,-1.4234507,-0.29662308,0.9957821,0.39141333,1.6763841,1.7157425,0.29487666,-0.12359939,1.0252459,-0.9428839,0.58484125
control06,1.9511949,-0.47059304,0.8546258,-0.78872347,0.02003393,-0.45842063,-1.0753864,-0.30277818,-0.036063254,-0.8871178,0.3700204,0.036675215,-0.27497524,0.13573149,-0.11365512,1.73052,-0.11311135,0.18456632,-0.38973427,-0.6609327,-0.54157984,0.86815923,0.4730958,0.81092834,1.2603526,-1.5131315,0.697637,-0.65710276,-1.5702531,-0.38820568,-0.83217615,1.2152019,0.9994898,-0.20894162,-1.9139802,-0.3884487,-0.81316227,-0.9101455,-1.1135617,1.5654552,0.96480364,-0.6139412,1.1789485,-0.44342425,-1.2956458,1.0528305,-2.3496788,-0.6363671,-1.3191806,-0.7596714,-0.43713218,-1.3278468,0.7369058,-0.042632077,-0.78205854,0.06419969,-1.89623,1.3577634,-0.23800628,0.6333616,-1.0270282,-0.71769106,0.4877206,1.0785457,-1.1554317,0.08099285,-0.39718094,0.48065528,0.3578178,1.0665127,0.56049615,0.2391057,0.6062133,0.40227562,0.6410212
control07,1.6895227,-1.0008126,0.23282793,-1.1882344,-0.08878314,-1.4108015,0.31142315,0.18994202,0.26602215,-2.6579459,-0.05633902,0.06835368,0.020766195,-0.42659974,-0.4198793,0.18869022,0.4166424,1.5222067,-0.21419594,-0.7952183,-0.08517003,0.07752572,0.7233541,0.950902,1.0809847,-1.2933714,1.0325888,-0.51749474,-0.71219957,-1.0127853,-0.10071331,0.07471421,0.6499625,-0.453265,-0.38988563,0.07779993,0.12994881,-0.5103182,-0.5541097,-0.1448145,1.5203235,-0.5812715,0.7385632,-0.029696591,-0.508251,1.6572738,-1.3326035,0.22061296,-0.4463884,0.9149173,0.5098846,-1.8424056,1.1077061,0.63262105,-1.48774,-0.7601734,0.45485765,1.1312498,-0.122924715,0.6525818,-0.9850559,0.69519573,0.06598299,0.8332777,-0.52985704,-0.21320312,0.7070063,-0.034549315,0.9103011,0.6764136,-0.41775775,0.00907243,1.5824882,-1.398284,0.11721557
control08,2.377077,0.07430698,-0.27923468,-0.1403883,-0.41175315,-0.31862915,-0.43133757,-1.0126703,-0.37399858,-1.1812418,0.5080409,0.3652626,-0.08873732,0.60233563,-0.21293841,1.3502986,-0.30789152,0.8712954,-0.81545484,-0.64205635,-0.10857701,0.23208101,0.049353797,0.60986924,0.31410635,-0.9509042,0.3408529,-0.62942505,-1.3224967,-0.25337696,-0.7103199,0.59124833,1.239058,0.12462534,-1.0423915,-0.21549764,0.56698054,-0.87557423,-0.8811888,0.8008021,0.45468304,-0.8985435,0.92616075,-0.29357335,-1.5205092,1.0831326,-1.5865856,-0.20150788,-1.5062581,-0.5042638,0.06522785,-2.372222,0.70226526,0.39766726,-0.5816074,0.46739128,-0.6574522,0.88725305,0.42273033,1.5021608,-0.5290538,-0.05288535,0.51503205,0.8450744,-1.0437257,-0.6395434,-0.1346887,0.42275146,1.246918,1.2424176,0.3016363,-0.106714316,1.2636317,-0.95371985,0.68385476
control09,2.8245246,-0.60342896,-0.06936629,-0.49769625,-0.31887716,-1.596357,-0.3805153,-0.016149089,-0.24716419,-1.1097025,0.3800221,0.33791965,0.25101185,0.38283682,-0.54727924,0.3093661,-0.26157293,0.58208394,-0.16637695,-0.7181515,-0.32952988,0.26509348,0.865796,1.1498716,0.84306204,-1.6323436,1.1202402,-0.5543102,-1.2597387,-0.7189721,-0.98448986,0.67936486,1.258192,0.14521863,-0.30475482,-0.6366552,0.029021561,-1.0384334,-1.1637101,0.5759071,1.441195,-0.14063948,1.1953155,0.11118143,-0.6777986,0.9166358,-1.459467,-0.5018238,-1.1664091,0.03514432,0.7233132,-1.0318145,0.49014583,0.1351738,-1.316436,-0.2581338,-1.1701959,1.1701118,0.063486904,1.146232,-1.1091632,0.3033192,0.34022388,0.97416633,-0.92943025,0.30212668,0.3882776,0.73071915,1.2250218,1.2072939,0.3527751,-0.57359457,1.1750995,-0.56630164,0.35762957
control10,2.7418902,-0.6986998,-0.05479043,-0.7431897,-0.74895316,-0.45838934,-0.37125793,-0.9674088,-0.41135287,-1.9018106,0.056472663,-0.21464908,0.404384,-0.45901728,0.0012476777,1.0623876,0.5359408,1.0180957,-0.26100695,-1.1165181,0.6325107,0.1003937,1.1462656,0.17818624,0.21215945,-1.5154533,1.0192922,-0.6362609,-0.85014087,-0.486676,-0.19314468,0.57680774,0.487364,0.74262804,-0.8174662,0.114600554,-0.09970085,-0.5155683,-1.4885241,0.5439641,0.73762286,-0.45344192,0.25670886,-0.61682326,-1.3263648,2.2876635,-1.762139,0.08758052,-0.9443992,-0.90047306,-0.23491456,-1.8827972,0.20036852,0.8530892,-1.1115868,-0.439536,-1.0397804,0.8560109,0.18923648,0.63517106,-1.065971,-0.5653989,0.43962252,0.14563276,-0.8936921,-0.600809,0.20357686,-0.18024902,1.2063742,0.6535027,0.31988978,0.03872381,0.4966642,-1.382969,1.0926167
control11,1.7761848,-0.13144384,-0.28914058,-0.59780425,-0.5831638,-0.8252936,0.5310823,0.32135737,-0.32312226,-1.4974248,0.13639116,-0.04581315,-0.4374972,-0.25673455,-0.6299053,0.29196274,-0.61902326,1.3620392,-0.5234989,-0.9788483,-0.1658811,-0.088427916,0.81003964,0.85345876,1.1809068,-1.6055169,1.0704861,-0.6535417,-1.3935828,-0.55025303,-0.24644776,0.8777536,-0.002180274,0.8317852,-0.46129048,-0.20247313,-0.31359887,-0.32099473,-1.0500488,0.6274298,0.7314398,-0.45351684,0.22797708,-1.7299722,-1.7696717,1.8478473,-1.5627371,-0.13988666,-0.90042514,-0.34465817,-0.34404382,-1.6752659,0.26620933,0.4375315,-0.37156644,0.11012934,-0.19697224,0.6136273,0.8035707,0.9555909,-0.5718856,0.26382914,0.47289032,1.0480369,-1.261921,-0.50633794,0.20202433,1.8290704,0.23492151,0.051386356,-0.5281203,0.08051591,0.88527554,-0.20188086,0.9168577
control12,2.1503644,-0.9869976,0.07165723,-0.36561596,-0.11283226,-0.56663674,-0.7351108,-0.09146311,0.32869482,-0.8627882,0.662092,0.088707894,-0.11077928,0.69798094,-0.39610058,0.93754745,-0.22291055,1.1499803,-0.7580928,-1.4346662,-0.19682838,-0.22362725,0.8369304,1.4554743,0.9078219,-1.3750986,0.36334136,-0.11424172,-0.81656915,-0.7651139,-0.68443584,0.35534737,0.6827842,-0.0056645744,-1.0106969,0.32580099,-0.13716601,-1.1256508,-0.61001843,0.35265425,1.8152146,-0.7684698,1.0170668,-0.9218818,-0.8304259,1.1689855,-1.4852184,-0.6530113,-1.389635,-0.2569368,0.37088653,-1.5404704,1.2462094,0.55030453,-0.9657108,-0.7008222,-0.07465529,1.5386661,-0.1502871,0.86349815,-1.2202402,-0.06712846,0.5044704,0.9998558,-1.2895477,-0.5885159,0.25093877,-0.50803,1.0317774,0.5770589,0.8391746,0.0068866983,2.4322731,-0.32536763,0.70040816
control14,3.1087992,-0.49523675,0.086768724,-0.5579744,0.22634712,-0.7138353,-0.27795222,-0.0035607824,-0.3441009,-1.3768654,0.5809688,-0.0016011591,-0.5278487,0.12278119,-0.68528455,0.97122705,-0.6243549,1.5549475,0.19425288,-0.9537045,-0.35812414,-0.47269645,1.016801,1.5799493,1.1878917,-1.5192595,1.2086227,0.32463476,-0.26815176,-0.36383948,-0.652555,0.64777637,0.7726309,0.6105919,-0.36464092,-0.9018104,0.30120093,-0.46632364,-0.60563934,0.77522206,1.2228031,-0.2210891,0.4359489,-1.0390574,-1.4964974,1.3934988,-1.8598806,0.19552775,-0.9440545,-1.3321462,0.48576307,-0.65607953,0.78525704,0.7976961,-0.6401633,-0.7831079,-0.73515385,0.95242625,0.44437897,1.0515125,-0.28697088,0.3040484,0.16111298,0.73856586,-1.2989776,-0.63764393,0.36284235,0.5319093,1.3670611,0.30811968,0.041511267,0.10802909,1.2049626,-0.7674163,0.24326465
control15,2.3558755,-0.33962676,0.32898808,-0.8887895,-0.37502226,-0.31516254,-0.028474921,0.15518309,0.24990642,-1.6118159,0.0022137791,0.4061653,-0.18972805,0.5955944,-0.0015456344,1.4629751,-0.23124056,0.53730637,-0.90324384,-0.84023464,-1.0861785,-0.8152594,0.18733536,0.6863426,0.63110787,-1.1410413,0.38498908,-1.199302,-0.67229384,-0.55381995,-0.7216451,1.0954496,-0.17258973,0.25652128,-1.3156843,0.23959675,0.47050816,-0.91777146,-0.6200923,0.16137584,0.6763271,-1.3217947,0.7419342,-0.6128427,-1.5249058,1.9399201,-2.4597294,-0.014338927,-1.1659184,-0.688508,0.1674953,-1.7743471,0.9730935,0.120343536,-0.65371066,0.06690146,-1.4049767,1.0613891,-0.38943812,0.6172004,-0.742296,-1.6721765,0.11801775,1.1274368,-1.1465492,-0.59593797,0.611106,0.5113815,1.1087955,0.50196755,0.64755034,-0.63932645,1.4646302,-0.78809166,0.6909334
control16,2.7231684,0.08602375,-0.35186386,-0.058959953,-0.6985107,-0.36960143,-0.67723936,-0.07040595,-0.23999336,-1.7361405,1.3692317,0.13673994,-0.1107874,-0.020409606,-0.073277086,2.2311127,-0.08984882,0.555726,-0.13451563,-0.6571826,-0.5545566,1.0386904,-0.45504108,1.0713233,0.18066208,-1.1973041,-0.043890204,-0.837302,-0.9733435,-1.0177029,-0.20937665,0.8469863,0.72249377,0.79551,-1.0528849,-0.095800385,0.09961896,-0.7059595,-1.1183324,0.7629055,1.5435048,-0.8025414,0.33221078,-0.03876602,-1.036778,2.2602832,-1.4511095,-0.8275421,-0.8253185,-1.2473961,-0.7900945,-1.5881132,0.73848885,0.78699356,-1.2957082,0.21123417,-0.12680246,1.3212723,-0.07950494,0.9278555,-0.9246742,-0.78332835,-0.021581905,1.0751327,-1.2172477,-0.62840784,0.12400854,0.69690555,0.44637653,1.2695531,0.372001,0.38088706,1.2821307,0.103468575,0.61425054
control17,1.6615555,-0.4185487,0.1433525,-1.0584562,-0.4936138,-1.0408392,-0.43177226,-0.24675973,-0.46639684,-1.1057343,0.2692033,0.21643016,-0.20929264,0.9053554,-0.012876954,1.103527,-0.19856705,1.1239728,-0.050567333,-0.8235387,-0.5247844,0.2872225,0.050240446,1.1475142,0.1516289,-1.7549411,-0.014060604,-0.6978817,-0.8327352,-0.1202955,-0.23392402,0.8987233,0.8188641,0.19457026,-1.2950315,0.024279777,0.2974716,-0.53049135,-0.58000565,0.72273546,1.0188057,-0.28116056,0.81922483,-0.6335876,-1.7415743,1.6007673,-2.0751934,-0.10169992,-0.90089065,-0.71944773,0.26447728,-1.6317413,0.8973205,0.94333684,-0.28482145,0.07992439,-1.1386721,0.67896616,0.55527806,1.1763003,-1.1477004,-0.87605387,0.32815176,1.1367182,-1.4287199,-0.54256475,0.58303255,0.41010365,1.2724588,1.1455117,-0.081394136,0.48841012,0.6904983,-0.7210527,1.0487833
control18,1.341345,-0.46642894,-0.15049759,-1.1889967,-0.1577547,-0.8491459,-0.14847948,-0.03214615,0.5474862,-0.4255677,-0.3141837,-0.52218384,-0.37127608,0.5419155,-0.27301344,1.2403791,0.38816488,0.80501753,-0.9547723,-1.1950653,-0.41167325,0.7493567,0.49612406,0.45589465,1.4464153,-0.76914084,0.2414461,0.63147736,-1.5413462,-0.55686915,-0.004920111,0.5872705,1.1575009,0.62138146,-1.7840376,-0.3229832,0.2937994,-0.8899653,-1.4022843,0.28029382,1.0512248,-1.1573641,0.8035228,-0.30390775,-1.3473225,1.861132,-1.777798,0.0242635,-1.1185545,-1.0676614,0.07092069,-1.2941967,0.7307367,0.2995549,-1.1721525,-0.12213291,-0.27603078,1.3778589,-0.29174396,0.5446615,-0.8541463,-0.82825834,0.19012053,1.1414512,-0.70371604,0.03190099,-0.4249568,0.57913816,1.7358973,1.1074619,-0.0142601505,0.12022986,0.6357267,-0.25412485,0.12884462
control19,2.8293936,-0.42934576,-0.790318,-0.41229755,0.8498555,-1.3477796,-0.015156431,0.104690276,0.012849389,-0.6043794,0.75739974,-0.08614823,-0.45583177,0.08314398,0.23623541,0.74158424,-0.0038409205,1.173647,-0.1507183,-1.3379195,-0.98412085,1.1438719,-0.5537189,1.6037143,1.391802,-1.2217987,0.3274202,0.13142982,-0.80070823,-0.5023465,-0.33062336,0.44246984,1.0049917,0.45357633,-1.7441086,0.09489341,0.8976776,-1.1971276,-1.6440563,0.68784606,0.90071964,-0.54124796,0.51354647,-0.88186854,-0.8107421,2.1827035,-1.5249931,-0.6328824,-1.5004374,-0.27997115,0.30386648,-0.7992579,1.13397,-0.11823381,-1.0243778,-0.36557728,0.00871382,1.4535787,-0.37936443,0.88400555,-0.7401923,-0.71897686,0.4946858,1.1725961,-1.3742366,-0.38663515,-0.4138312,0.5897031,1.5129218,0.44034174,0.15323174,-0.06135621,0.6318099,-1.1588755,1.0025936
control20,2.5870502,-0.3970753,0.00063430844,-0.3491275,-0.47957164,-1.1295129,-0.7304649,-0.34260908,-0.5106202,-1.3293097,0.95480096,0.14582637,-0.17334242,-0.03903851,0.24602124,1.0989252,-0.38608244,0.13439874,0.027522098,-1.7190151,-0.5359041,1.1215087,0.7190686,0.53219193,0.43568727,-1.1214827,0.37244362,-1.014281,-1.3955361,-0.27847773,-0.21150948,0.69797885,0.026379306,0.62802994,-1.2238383,0.21879146,0.34990168,-0.09801453,-0.62501425,0.47119987,1.0882105,-0.75239146,1.4090916,-0.5609721,-1.4093012,1.2045141,-1.442076,0.06241725,-0.9981069,-0.4030363,-0.1281816,-0.71109074,0.45376953,1.0020082,-0.3821471,0.0077453433,-1.1775657,1.5604793,0.5869027,0.4501341,-0.8702269,-0.10664632,0.52912456,0.8707973,-1.6397766,-0.51460874,0.7501799,0.24802145,0.81229925,0.7492732,0.7801795,-0.7699451,1.3864166,-1.0609344,-0.30816433
sujet01_neg,1.5971563,0.49693978,-0.34326917,-0.13955103,0.47613886,-0.4897247,-0.4987044,-0.1642135,-0.6569978,-1.5542909,0.85960495,-0.9321363,-0.50738657,0.07100111,-0.40672976,1.1568222,-0.36591175,0.6445878,-0.34703442,-0.56244516,-0.42982906,0.48210832,1.2785856,0.25602633,0.617316,-1.6379371,-0.1301772,0.2193006,-1.4177828,-0.61965615,-0.73765504,0.6395101,0.61093974,0.83926636,-0.266411,-0.20194331,0.02471377,-0.96341527,-1.2133787,0.19734336,0.7456491,-0.31655306,0.004557148,-0.524516,-2.2516189,1.5852625,-1.9233521,0.11609581,-0.8906973,0.0681465,-0.23764399,-1.1357148,0.58909917,0.7915078,-0.47386518,-0.042475503,0.5505967,0.851179,-0.46162912,1.0860565,-1.0287231,-0.059219796,0.26886696,0.41973135,-1.4442115,-0.5079031,-0.3677043,0.1659299,1.0634005,1.0945756,0.033223152,0.7035666,1.3662323,-0.99955535,0.22404012
sujet02_pos,2.874268,-0.52378833,0.02447259,-1.4821962,-0.38090727,-1.0418074,-0.27013078,-0.34908602,0.3843783,-0.19129828,0.7446643,0.05749333,0.18254685,0.013273269,-0.4609175,1.9202958,0.103489354,0.16601542,-0.2922071,-0.11172435,-0.35880747,1.0446287,0.67695165,0.6759337,0.40568465,-0.9459651,0.5574448,0.017234711,-1.1847978,-1.232821,-0.24879473,0.6172488,1.5518687,0.1426783,-0.8873313,0.08146295,-0.20471174,-0.056185305,-0.7009781,0.84297943,1.329999,-0.28313518,0.46680075,-0.14257324,-2.159245,1.8027827,-1.4069341,-0.07282993,-0.023878573,-1.5787786,-0.7168157,-2.0616753,0.6978862,0.92783797,-0.12148906,-0.2730269,-0.3730288,1.4947163,0.14062832,1.2202682,-0.6476713,-0.13660242,0.16178699,1.2017589,-0.8608904,-0.5001028,-0.59337115,0.9732963,0.46263266,0.6415455,0.14797744,0.1939365,0.6469921,-1.3761407,0.90673935
sujet03_neg,2.777983,-0.84258175,-0.3492407,-0.08360212,-0.5017677,-1.276165,-0.28536204,-0.21056679,-0.15083785,-1.0785716,-0.09936732,0.25492296,-0.17321311,-0.42551565,-0.7158676,0.10624649,-0.085954905,0.27459764,-0.5006834,0.14757338,0.14308172,0.36116782,0.43741018,0.41695976,0.8390719,-1.3879514,0.76463276,-0.03711358,-1.4562904,-0.9155054,-0.053237297,0.3402191,1.3577907,0.13789164,-0.5781275,0.19913018,-0.21061139,-0.76118785,-1.2685885,0.93725413,1.5341156,-0.73225856,0.25595307,-0.8095864,-1.8832796,1.6919813,-1.7935439,0.642105,-1.2090007,-0.454188,-0.2704623,-0.99889,0.5300003,0.51715887,-0.54419494,0.05723374,0.051974926,0.99848884,-0.7457714,0.78745955,0.0071889074,0.64551,0.79364574,0.46586204,-0.19714755,0.1099374,-0.37763014,0.32022122,1.8055204,0.9641684,0.09496385,-0.11963881,0.60962975,-0.8778786,-0.006593617
sujet03_pos,2.7920744,-0.51837295,0.2002384,-0.07988664,0.71440005,-1.214147,-0.6623097,-0.42683825,-0.11049744,-0.43773168,0.47812814,-0.09795639,-0.6292023,-0.25445414,-0.15870112,0.94901806,-0.19043374,0.83284837,-0.39571652,-1.1971378,0.05502974,0.4713999,0.82019997,0.8898494,0.23831414,-1.6339831,0.19095558,-0.27133802,-1.3461814,-0.6828603,-0.26204848,0.86716866,1.319892,-0.2353084,-1.2123842,-0.2671578,0.05281554,-0.9490325,-0.560499,0.62099624,1.9877954,-0.36495817,0.8674416,-0.701425,-1.0648898,1.1432296,-1.066411,-0.21273454,-1.1405785,-0.895475,-0.232177,-1.146057,0.6782418,0.69060844,-1.6619267,-0.07820755,-0.3753727,1.3627372,-0.37077492,0.6223809,-0.83810943,-0.22811742,0.40496966,1.3387787,-1.4307725,-0.65598714,-0.38257852,0.71054655,1.3647801,0.9837247,1.1360317,-0.42475498,1.1902201,-0.41877943,0.30762073
sujet04_pos,2.8320873,-0.7203344,0.5172999,-0.3551789,-0.39144096,-1.4075035,-0.22381945,0.60093373,-0.56714225,-1.0892923,0.56561184,0.67386377,-0.085035555,-0.28002578,-0.50699264,1.4658293,-0.28495717,-0.09430958,-0.29389247,-1.0288277,0.44560385,0.10956225,0.5884079,0.9597892,1.162585,-1.3905284,0.9801787,-0.33934298,-0.81280786,-1.1673907,-0.6235262,0.45268542,0.3399435,0.46428534,-1.5461851,-0.13905862,-0.5929136,-0.38420564,-0.80039316,1.246232,0.46718854,-0.74605983,1.1893085,-1.0139053,-1.2955383,1.0151817,-1.9765642,-0.4565784,-1.3690131,-0.89508516,-0.23574829,-1.0719807,0.98004764,0.47649464,-0.7140718,-0.25464487,-0.7158681,1.2134653,0.84605145,0.67146695,-0.81266755,-1.5916746,0.17300917,-0.06536132,-1.0386509,-0.39277986,-0.18244126,0.22498111,1.489898,0.26799366,-0.45543838,0.34641364,0.872539,-0.19749174,0.2889106
sujet05_pos,2.2300923,-0.049339913,0.40858507,-0.29420745,0.17141591,-0.56407803,-0.5311632,-0.25669998,-0.15856794,-0.9459738,0.57119435,-0.63877815,-0.30888015,0.6275435,0.14458492,0.8444008,0.06426929,0.08440273,-0.3886312,-0.34669408,-0.89604324,1.3777814,0.66738975,1.2297075,0.6739429,-1.0131671,0.7022864,-0.44609138,-1.2282344,-0.3036563,-0.2810502,1.1449043,0.7360855,0.28595734,-1.457361,-0.29460377,-0.01683475,-0.51822954,-1.3010571,0.72591895,1.6701597,-1.0133693,1.5849999,-0.35950187,-1.5371708,2.1957147,-1.5279564,-0.7588011,-1.5963688,-1.2764403,-0.71234006,-1.2437521,0.77026963,0.7809951,-0.60747296,-0.28935987,-1.0920746,1.262413,0.23177937,1.0959034,-1.863963,-0.17783631,0.22434829,0.60822684,-1.3121635,-0.5903943,-0.61099094,-0.1658894,0.6754768,0.4573701,0.24583706,0.054879807,0.8687534,-0.14609863,0.30551597
sujet06_pos,2.7268822,-0.5139791,-0.26071498,-0.20899521,-0.32788846,-0.6722365,-0.28665063,-0.6791227,-0.56692266,-0.9237438,-0.18899849,0.18707769,-0.44491467,-0.17009687,-0.27111277,1.3536707,0.1448898,0.9037514,-0.48494342,-0.17739177,0.32133335,0.44247127,0.49585307,1.0280826,0.81451154,-1.1678857,1.4178188,0.112422794,-1.4165171,-0.933816,-0.9633522,0.66904604,1.3838799,-0.061719824,-0.414829,0.14421904,-0.15643945,-0.28977913,-1.4898998,0.6039364,1.5382224,-0.035485514,1.0502466,-0.582989,-1.340196,1.3149015,-0.2278119,0.12041898,-0.83193535,-0.27059433,-0.038073197,-2.4677231,1.0353439,0.5082334,-1.6522758,-0.2052714,-0.2681116,1.3053948,0.3663112,1.3525233,-0.9206364,0.295948,0.44367877,0.8922728,-1.1156354,-0.15981895,-0.09092125,0.9027908,0.93225294,-0.10579948,0.566897,0.044791974,1.2212995,-0.41285318,0.2994748
sujet07_neg,2.4025662,-0.6548126,0.38032606,-0.15065317,-0.7691285,-0.631181,-0.10861157,-0.3386351,-0.3403877,-0.41341314,0.2525085,-0.010849416,0.07419488,0.15879387,-0.46223515,1.4658879,-0.25928524,-0.093085654,-0.18891785,-1.2258192,-0.08708346,-0.046630755,0.51365894,0.8068033,0.53108567,-0.86708754,0.8449707,-0.43668583,-1.1331644,-0.4898719,-0.0035186568,0.36697623,0.40343285,-0.14857589,-0.5895706,-0.13073505,-0.113952085,-0.668177,-0.81108,0.9884799,1.2263632,-1.1169885,0.7216999,0.022672437,-1.598432,0.98223644,-1.4987818,-0.14998178,-0.643901,-0.96376395,-0.56785786,-1.393817,0.8324229,0.061448272,-0.5645677,-0.3183738,-0.9463655,0.675928,0.25586662,1.2856166,0.13330834,-0.7693214,0.018719183,0.7219295,-0.4540104,0.3723674,0.07718703,1.1080916,1.1461161,0.7985693,0.09702334,-0.5124056,1.0219157,0.08949686,0.26453808
sujet07_pos,2.6497421,-0.99344707,0.06717,-0.8008197,-0.055166993,-0.662885,-0.15028901,-0.0095319385,0.67008805,-0.44740373,0.022527058,0.4136544,-0.64019316,-0.5022374,0.101305366,0.70834476,0.1983584,0.84694165,-0.50019956,-0.896926,0.5998399,-0.3551927,0.56632495,0.84295094,0.659134,-1.1851343,0.5174029,-0.86988217,-1.3776443,-1.0008942,-0.70446277,0.7780102,1.1313165,-0.4503865,-0.9595446,0.24681413,0.25835747,-0.78288174,-0.54339725,0.2554321,1.4192723,-0.70024717,1.2490171,-1.0352879,-0.44913608,0.59790033,-0.49528074,0.14526704,-1.0328821,-0.44040787,0.63314104,-1.6842766,0.80351996,0.12984155,-0.86667967,-0.3659729,0.24373528,1.7788818,0.38737404,0.7060963,-1.4250416,-0.010416109,0.29375982,0.638668,-2.3003688,0.0056774295,0.7623123,-0.11692689,1.5448627,-0.16805263,0.8638366,-0.88432086,2.3164792,-0.6600469,0.1960935
sujet08_neg,2.1902711,-0.39378738,-0.47161442,-0.88693845,-0.011112663,0.15108308,-0.65375006,-0.77936065,-0.44047147,-1.0513529,0.25737792,-0.58655924,-0.48301047,1.1744362,-0.28463438,0.9521636,0.08466847,0.8571229,-0.2592866,-1.073462,-0.13609391,-0.054246604,1.3402257,1.3607926,0.4882207,-1.0329953,0.48173907,0.013644216,-1.2426146,-0.45645002,-0.8564921,0.8877753,0.4893264,0.6787069,-0.6862548,-0.26638454,0.4973031,-0.22787698,-0.7904531,0.37200323,1.3045968,0.10789053,0.18559147,-0.30026183,-1.2511362,1.6880516,-1.8527423,-0.07939425,-1.0844916,-0.54514176,-1.1360667,-1.6393065,-0.12474237,0.5026072,-0.66783136,-0.3262202,-0.86529946,1.5145885,0.28508323,1.2244836,-0.5897381,-0.8431195,0.25022995,1.0867689,-1.5727416,-0.20369089,-0.020742,0.49946567,1.1049105,0.09494689,-0.057165265,-0.30980816,1.1696914,-1.267278,0.61987555
sujet08_pos,2.2606936,-0.031425007,0.18277945,0.57225865,-0.47080806,-0.4272343,-1.4230386,0.17822883,-0.1713756,-0.8640961,1.5100456,-0.23489287,-0.45055538,-0.59759265,0.36466512,0.8948098,-0.64640087,1.2278302,-0.38224748,-0.04430479,-1.1945232,0.26863766,0.04323173,0.8076632,1.1037595,-1.3517895,0.6319869,0.028771726,-1.1436528,-0.024249941,0.0020944616,0.98358107,0.9076362,0.71343166,-0.7788194,0.32366085,0.5306639,-0.92341906,-1.2109134,0.5235197,1.8538761,-0.84464383,1.3711201,-0.6406976,-1.1887004,1.683481,-1.7881678,0.29330778,-1.5340914,0.08479524,0.537903,-1.7085242,0.6962965,0.41429284,-0.9024757,-0.18709755,-0.67784995,0.9853107,-0.80589074,0.77239054,-1.1461099,-0.49222028,0.3607472,1.0293423,-1.0359026,-0.38730577,0.2165975,0.4676215,0.6010767,1.6170424,0.52936625,-0.97615796,0.77734005,-0.30259627,0.9911257
sujet09_pos,2.3625007,-0.63732076,-0.1680008,-1.1077576,0.29674414,-0.9908331,-0.1269659,-0.07006738,0.2370314,-0.89468664,0.23525581,-0.25072104,-0.31869465,0.7697765,-0.6552621,1.341801,0.33024967,-0.084325396,-0.32354638,-0.9522493,-0.41461974,-0.42164356,1.2867184,0.26972932,1.4433198,-0.31576666,0.17942604,-0.15283063,-0.9181141,-0.27900675,-0.68372947,1.0848686,0.377845,0.6934602,-1.8031251,0.018207718,-0.16016684,-0.5378309,-0.8800877,0.5806112,1.6594673,-0.47247487,0.4574321,-0.7130568,-0.9878969,1.6865671,-2.9156327,-0.10778329,-0.8581454,-0.9567136,0.42195892,-1.3529367,0.51313347,0.70853585,-1.1519977,-0.4457363,-0.41457182,1.1874368,-0.018235724,0.85475963,-0.9758196,-0.7608159,0.1891507,1.3717778,-1.6354294,-0.6716487,-0.5100747,0.43417647,1.4253027,1.1117188,0.21878988,0.0022284314,1.0564699,-1.1583244,0.8654184
sujet10_neg,2.1408408,-0.09975188,0.22294894,0.34009153,0.018645134,-0.9232184,-0.35042632,-0.66858935,0.30132452,-0.5184708,0.46924263,-0.34606785,-0.079876564,0.18322563,-0.1377413,1.265293,0.12598222,0.68116397,-0.55522275,-1.1661022,-0.2559748,0.58278644,0.74005854,1.6124198,0.008030862,-1.7287109,-0.43316072,0.0829989,-1.4647446,-0.7622075,-0.45885286,0.655371,0.9570396,-0.37566322,-0.467796,-0.6777656,0.5337369,-1.0541836,-0.11079074,0.51046395,-0.102136806,-0.22975452,0.98331845,-0.1556082,-1.2023673,0.96462095,-1.4594628,0.25958174,-1.3082094,-0.91336864,-0.2517626,-2.1182227,-0.17616951,0.0878482,-0.25368243,-0.056778472,-0.5515249,1.3749527,0.2205355,1.5531828,-0.4530534,-1.2702345,0.028823508,1.0866634,-1.0869373,-0.22293651,-0.3820112,0.87416095,0.90930474,0.97720635,0.86010617,0.08583965,0.6843205,-0.3362749,0.39152104
sujet10_pos,2.5999532,0.2455622,-0.17217574,-0.05980488,-0.12315488,-1.1006166,-0.53257424,-1.0156664,-0.25935286,-1.0487473,0.515838,-0.4221805,-0.018727146,0.688024,-0.2622415,1.4920639,0.117302954,1.1222516,-0.7843035,-0.9926735,-0.5248758,-0.24708582,1.2231939,0.6471446,0.7072702,-0.37814793,0.9215017,-0.19523129,-0.91536766,-0.7249586,-0.49180597,0.40197864,1.5469685,0.87133,-0.6591085,-0.23137179,0.0480522,-0.64885974,-1.3548013,0.38583684,1.3839872,-0.7991625,0.6179857,-0.61795104,-1.2546043,1.167353,-1.7664714,0.40327764,-1.8052768,-0.75333494,0.30012298,-1.550855,0.6231732,0.46188438,-0.61106205,0.64368117,-0.20110382,1.6847467,-0.2716946,1.2767947,-0.6836459,-0.8198194,0.32885894,0.5613078,-0.6532107,-0.26746014,-0.7029256,-0.13116261,0.82477486,0.53539276,0.28584328,0.39577648,1.2068303,-0.359489,-0.39555684
sujet11_pos,1.4461961,0.13451879,0.23619738,-0.14092156,0.0050149383,-0.5454009,0.08293916,0.45194483,-0.30126077,-0.87131387,0.2911805,-0.17420755,0.033053387,0.20652412,0.033376846,1.2112603,0.14336988,1.3283218,-0.3522875,-0.63617754,-0.20309496,-0.29777375,0.08581425,0.6276825,0.97267675,-1.231154,0.53260624,-0.55817026,-0.8789102,-0.07992899,-0.6294313,0.65090203,0.19788697,-0.033544917,-1.550946,0.20003124,0.17956467,-0.0683046,-0.9221425,0.91324836,-0.08231137,-0.78285396,1.3191541,0.82950723,-2.179349,0.6782269,-2.439045,0.049322955,-1.3223513,-0.39032844,-0.2750321,-0.77862054,0.6180826,0.30947837,-0.2092618,-0.41334176,-1.2541933,1.0379573,-0.21246651,1.2894228,-0.30904192,-1.2372347,-0.085918926,1.0589784,-1.3550446,-0.14362416,-0.20294513,0.73657775,1.6565552,0.809802,-0.8521924,0.16690981,1.7918309,-0.88707954,0.2086109
sujet12_neg,2.5586064,-0.8124014,-0.52164596,-0.73271567,-0.289717,-0.34271446,-0.4488981,-1.1319022,0.07822876,-0.323196,0.23035717,-0.24544737,-0.108594686,0.6185833,-0.68598413,1.3204625,0.19481859,0.33548814,-0.3500233,-0.8087162,-0.16477591,0.44233087,0.28539935,1.3560036,0.27341217,-1.4113258,0.6285128,0.26454327,-1.2604464,-0.66206646,-0.5115777,0.73459005,1.0435305,0.69414544,-0.8925279,0.3333391,0.93591696,-0.32424405,-0.8752775,0.5532855,1.4714401,-0.5919707,1.0093287,0.13983154,-1.6950724,2.0778894,-1.554006,0.42203185,-1.3433647,-1.6627704,0.13117044,-1.5778191,0.094822176,0.27148607,-0.42600104,-0.392051,-0.39581203,1.1908547,0.76923263,1.4450835,-0.6943554,-0.6973228,0.2006408,0.05617189,-0.8065872,-0.58981776,-0.11123039,-0.1243546,1.8198937,0.5433125,0.120310575,-0.7716573,0.58845264,-0.0002981336,0.71686715
sujet13_neg,1.9788247,0.08549045,-0.15963033,-0.5029213,-0.11040369,-0.9948511,-0.73236305,0.57838213,0.026840804,0.117895335,-0.25487953,0.16057071,-0.4549911,0.13144477,-0.29642615,0.8684511,0.2603571,0.93091863,-0.022487134,-1.3109251,0.1335007,0.2872219,0.27587733,1.2636513,1.22824,-0.9509601,0.37035373,-0.6611157,-0.13563691,-1.0614777,-0.6809565,1.0280766,0.85567147,0.4754445,-1.0273252,-0.16019534,0.82633126,-0.15252705,-0.27336752,0.15846877,0.76092696,0.20615484,0.56188715,-0.6441549,-0.7639559,1.1580442,-1.4968992,-0.06467023,-1.1580656,-0.21431318,-0.37691885,-1.1339146,1.017464,0.6237507,0.40735966,0.04213252,-0.8205972,0.70397264,0.55678767,1.3340348,-0.6041865,0.22186868,0.60224205,1.3048323,-1.2212142,-0.48878926,0.11937526,-0.08041014,0.6664994,0.601779,0.19194841,-0.47510216,0.6528997,-0.9553439,0.9355221
sujet13_pos,2.226103,-0.1936843,-0.02858442,-0.0774756,-0.46682522,-1.0372508,-0.39795265,0.2857859,-0.19217569,-1.0892936,0.39217937,-0.0030561085,-0.42319292,0.04949426,-0.33402914,0.41549933,0.16054654,1.8041902,-0.2994413,-1.554336,-0.37408277,-0.18695103,0.94849926,0.5679096,0.49254537,-1.8502307,0.6242234,-0.7569191,-1.1519055,-1.1553533,-0.81585693,1.0933881,0.28432795,0.78567696,-1.4943202,0.07556501,-0.079646714,-0.3413232,-0.25744277,-0.853337,0.16037872,0.022769017,0.61684924,-0.95573926,-0.7158118,0.5911904,-1.2842991,-0.19252643,-0.4008022,0.5100974,0.3422001,-1.7558067,0.56018925,0.5497159,0.25343695,-0.45079282,-0.30794412,1.214468,-0.3709112,0.9419403,-0.62295485,-0.12134605,0.25303292,1.1601793,-1.2352146,-0.27296603,0.47024402,0.41449165,0.74423516,0.7425812,-0.54341865,-0.745372,1.1828448,-1.007035,0.3149108
sujet14_pos,2.4915879,0.14527005,-0.11479964,-0.747065,0.19424346,-0.30833963,-0.39994773,-0.93030274,0.18588065,-0.8989646,0.5741599,0.76812756,-0.054099146,-0.24977115,-0.7964419,1.1568996,-0.004767162,1.0490407,-0.71935356,-0.9224477,-0.31085584,0.48086348,1.5688734,0.42410704,0.58403885,-1.2391948,0.7271691,-0.24389496,-0.51558036,-0.47790977,-0.96015275,0.4110892,0.37308428,-0.99065053,-0.36606324,0.3019017,0.38412836,-0.5641251,-1.2106673,0.40930977,1.2763157,-0.31117666,-0.2838257,-0.9371636,-1.6883343,0.80294895,-1.1060433,-0.36530012,-0.7573797,0.1268913,-0.12192187,-1.0832124,1.0597031,0.49514607,-0.7980797,-0.5457656,-0.44335514,0.92734075,-0.11163247,1.349316,-0.46329057,0.21902616,0.5591834,0.7576548,-0.95226884,0.37890992,-0.3330361,0.21805619,1.7036409,0.046517164,-0.034037083,0.20490503,1.9995525,-0.5770758,0.18231404
sujet15_neg,2.3632472,0.4099487,-0.021276895,0.51058847,-0.20117436,-0.5221245,0.39656013,0.06536376,0.5323266,-0.92433465,0.27690095,0.19820356,-0.48475495,-0.50829756,-0.34034392,0.47880754,0.2761456,0.67907244,-0.77410537,-1.7825353,0.4502629,-0.06240107,0.34833962,0.4125715,0.61076266,-1.5766817,0.79325783,-0.37609103,-0.79627806,-1.0621763,0.049849764,0.46959135,0.598526,0.72297275,-0.59962237,-0.31182152,0.6136193,-0.994568,-1.1109719,0.78031754,0.27740997,-0.5331084,1.0359412,-0.80785173,-1.4271536,1.0932149,-1.6539071,-0.609701,-0.9120303,-0.076995835,0.60201657,-1.8453072,0.6462499,0.26800677,-0.025855778,-0.17210992,0.70177877,0.8617413,0.9740184,1.3802865,-1.0174189,0.71137226,0.062015556,0.12612282,-0.20540825,-0.4694254,1.8059083,-0.14769435,0.7302058,1.1767155,-0.6129869,0.39567754,1.0052873,-0.31878716,0.7950819
sujet15_pos,2.5179896,-0.16862704,0.18882841,-0.43941504,-0.74198276,-0.8007047,-0.48235753,0.5516878,-0.3979412,-1.0547909,0.33212042,0.15455696,-0.67140573,-0.28565115,-0.45812082,1.037134,0.9908986,1.5060774,-0.056295108,-0.9684223,0.72659844,-0.34163377,0.18032697,0.9388777,-0.1332753,-1.46387,0.062031474,0.02366261,-0.8159508,-0.6591123,-0.6971431,0.6488265,0.32157308,1.181168,-0.9233565,-0.48140353,-0.0003733195,-0.6032458,-1.0568277,0.9057735,0.13700987,-0.98436487,1.0172247,-0.42364976,-0.73958254,1.0649403,-1.5034132,-0.6193614,-0.67561835,0.08119563,0.6942133,-1.0367998,0.9483664,0.3144564,-0.15628296,-0.8611754,-0.5361043,0.9862343,0.47089607,1.1329353,-0.32130235,0.037214812,0.47596675,0.38980573,-1.06675,0.05752414,-0.22355098,0.33769277,0.73708373,1.4482499,0.23436184,0.41862473,0.7340321,-0.6735027,0.7767576
sujet16_neg,2.0445857,-0.47852638,-0.45060456,-0.36083397,-0.6063893,-0.74876314,-1.1490015,-0.6810381,-0.11802876,-0.8158588,0.46054977,0.23984584,-0.41812637,-0.7330233,-0.33135974,0.9864323,0.08256677,1.1135426,-0.3433545,-1.4778655,-0.21494977,0.35221368,0.3778442,0.88338196,1.1894002,-1.5401721,0.70334345,-0.4672117,-0.78416216,-0.58359325,0.2276862,0.7875494,0.8646223,0.002847982,-0.54872876,0.03256527,0.11236225,0.35206074,-0.40455478,0.35480508,0.97888154,-0.60913384,0.95347905,-0.54947406,-0.57171285,1.5960696,-1.5886946,-0.12110667,-1.5622531,-1.1975927,0.38635713,-1.397672,-0.022331562,0.52071154,-0.54934925,0.26628682,-1.0875366,1.1642874,-0.41951665,1.302443,-0.7887208,-1.1302564,0.20982239,0.12981534,-1.056991,-0.6674351,-0.19363683,0.51200616,1.7334685,1.0557456,-0.03200996,-0.4038891,1.2956342,-1.3569018,0.5094729
sujet20_neg,2.0478618,-0.67275476,0.5691882,-0.55759233,-0.12487979,-0.84984595,-0.20089893,-0.27567065,-0.060952716,-0.52068317,0.46539763,-0.07322544,-0.8207259,0.4970373,0.3243378,1.523593,-0.37769613,1.104418,-0.6506371,-0.73612905,-1.0025575,0.41265893,0.7675804,0.4953133,-0.06665124,-0.80188257,0.9360538,-0.84146965,-1.0684971,-0.6558923,-0.75456154,1.2783004,-0.3511697,0.25910437,-1.015383,-0.3660162,0.0075430414,-0.3133212,-0.5128177,0.87901515,1.6553302,-0.29312485,1.1013129,-0.07330824,-1.6302763,1.6138551,-2.2111375,0.78022766,-0.69454306,-0.72784084,0.33821273,-1.0136518,0.4441192,0.2633602,-0.3618843,-0.24563456,-0.7133247,0.7937516,0.31571883,0.9263025,-0.9532408,-1.0224082,0.110062905,0.9750587,-1.1688745,-0.7895187,-0.04751882,0.36272162,1.0270169,0.7452636,0.39424056,0.10421551,0.69244796,-1.0446438,0.9076409
sujet20_pos,2.6040547,-0.3957454,0.34601963,0.37981278,0.2991247,-0.52684623,-0.6808054,0.0546728,0.25709215,-1.0248042,0.889067,0.27310285,-0.39663553,0.049946487,-0.32857475,0.665292,-0.35935384,-0.5818985,-0.20590873,-0.60467625,-0.20302081,0.9394594,0.32054523,0.9866956,0.8962239,-1.055487,0.24937113,-0.8120248,-0.8697603,-0.46838996,-0.97017765,1.2401148,1.0503305,0.7020821,-1.1617787,-0.48224747,-0.14381571,-1.2795312,-0.74812865,0.82408077,1.0418829,-0.5068988,0.53416294,-1.0451138,-0.64378643,1.0139037,-2.2125237,0.17108491,-1.5034653,-0.76492274,0.60706574,-0.4648231,0.32756242,0.70015085,-1.1226095,-0.33488977,0.023483492,0.7493708,-0.1618935,1.2467687,-0.7187597,-0.44548163,0.22128758,0.36396104,-1.4176679,-0.6478896,0.38827583,0.41955367,0.98219687,0.69779724,-0.04582143,0.37575567,1.3885435,-0.34447703,0.35981554
sujet22_neg,1.8267169,0.05187659,-0.28547096,-0.23548149,-0.3848281,-0.49752834,-1.1934264,0.10519495,-0.5536802,-0.8221741,-0.6024934,0.10397248,-0.24302188,1.3431268,-0.6299186,0.25544864,-1.1645315,1.4391283,-0.26184613,-0.65370136,-0.45187387,0.5020829,0.7583456,-0.05096549,0.0812355,-0.88306296,0.44544148,-0.6263614,-0.67401564,-0.6045392,0.13076995,0.7315397,0.35148436,0.5833144,-1.452529,-0.15336125,0.18976928,-0.8963579,0.4090413,0.105423056,0.6889594,-0.60540557,0.55561996,-0.47020286,-0.77281433,1.1710197,-2.6793098,-0.27402115,-1.3704301,0.016223403,0.5345302,-1.2820714,0.45811456,-0.13507302,-1.0874244,-0.07173462,-0.25032884,0.5727655,0.19225599,1.2831156,-1.5503097,-1.4099574,0.4985059,0.36306113,-1.5038878,-0.7096362,0.34932062,-0.5043862,0.41031754,0.09205803,0.3575365,-0.579908,1.1578494,-0.8672029,0.19527514
sujet23_neg,2.6278222,-0.89694726,-0.49662924,0.039754875,-0.53343284,-1.229407,0.13237254,-0.5197417,-0.2787486,-0.98247576,0.38386214,-0.10535545,-0.7297647,-0.37131292,-0.47823828,1.419265,-0.2758143,1.32933,-1.0090103,-0.7139951,0.49612606,0.83014756,0.40404433,0.5604892,-0.03126216,-1.1806473,0.93374574,-0.65388787,-0.7376054,-1.2568012,-1.0441511,1.040116,0.67601126,0.58389205,-0.06853526,-0.23614182,-0.5224489,-0.64558506,-0.8650766,0.15964453,1.1049352,-0.24706094,0.93280333,-0.8534593,-1.5192431,1.0210696,-1.222416,-0.14356534,-1.0979264,-0.1560987,1.1191802,-1.6533005,1.1478219,0.47234556,-0.4954546,0.115834326,0.47410986,1.1610961,0.33591372,1.0228326,-1.1292515,-0.44100794,0.23439229,0.7168103,-1.0743438,-0.16810185,0.3579415,0.5285905,1.2258012,0.5834551,0.1931135,0.15625498,1.6121467,-0.9125125,0.38199097
sujet26_neg,3.2410092,-0.8875402,-0.12589616,0.23816201,0.1989093,-0.18363371,-1.0255924,-0.19503649,-0.010960849,-0.92177576,0.7342397,-0.7234772,-0.63983727,-0.19388583,-0.11000773,1.2238853,0.04829626,0.02947026,-0.6494778,-1.1231716,-0.44726634,0.27444458,1.0653794,0.17609635,-0.0016549528,-2.4124033,1.3077676,-0.3889089,-1.2214583,-0.50389326,-0.2804805,0.85942775,0.6272647,0.2311888,-1.6724112,0.016444478,-0.42598766,-0.27721277,-0.288354,0.5881615,0.77704084,-1.1035627,0.7094857,-0.9912216,-1.9422436,1.9509262,-2.1162052,0.5853208,-1.3096955,-1.2593347,0.11459802,-0.088003375,0.48179784,0.2579037,-0.556612,-0.306268,-0.76380765,0.9066218,-0.45891353,0.6477978,-1.0620428,-0.28735155,0.4393999,0.18148626,-1.1446247,-0.85246694,-0.17625615,0.04682232,1.1894059,0.5401773,-0.15316512,-0.31434456,1.4518508,-1.6208634,0.6254271
sujet29_pos,2.9918253,-0.37797922,-0.2923439,-0.19818498,-0.2916381,-0.49313828,-0.2506142,-0.47299165,-0.37119046,-0.89576256,0.28845316,0.090421885,-0.24337992,-0.15751983,-0.47046927,0.92765546,0.24910513,0.16956064,0.31645662,-0.25566137,-0.03555828,-0.20641373,0.46253935,1.1924406,0.8365239,-1.2802625,0.32621792,-0.7065705,-0.9897973,-0.6669291,-0.39429936,1.2566438,1.2589941,0.32881227,-0.42750743,-0.98346984,-0.521756,-0.48028404,-1.1240721,0.9524652,0.5837866,-0.7456131,0.07121627,0.12684861,-1.3419772,1.5074283,-2.0312672,-0.6299064,-1.2918164,-0.5347421,0.54284155,-0.7431023,0.79126036,0.24325043,-0.97781515,-0.81993157,-0.5293868,0.609448,0.10415253,0.96350497,-0.27576208,0.3003712,0.1779749,1.3854276,-0.99878544,-0.2983004,-0.8462673,0.048614215,0.2534796,1.9890165,0.5561244,-0.7944057,1.3845623,0.06525273,-0.17197797
sujet32_pos,2.0179358,0.18298985,0.29469132,0.30289805,-0.41544208,-0.45659396,-0.65634805,-0.46318135,0.32936195,-1.256763,1.1063852,0.090391695,-0.17784855,0.15724368,-0.35623613,1.0085106,-0.059257265,1.3447222,-0.8009717,-1.304215,-0.8465579,0.39071596,0.54935086,0.4450705,1.2491219,-1.426665,0.057542782,-0.8369425,-1.2259889,-0.024635203,0.106800616,0.74693006,0.88130397,0.29544377,-0.6576298,-0.54350364,0.15033163,-0.88114303,-1.1474657,0.4011064,1.6510355,-0.46610782,1.6654867,0.5077877,-1.9303195,1.2007719,-2.093872,-0.51808965,-1.4225334,-0.48409835,0.9467452,-1.2764475,0.5912458,0.29508296,-1.1780618,-0.17268743,-0.008298508,1.5692186,-0.60388017,1.5488125,-1.5725279,-1.4155455,0.36434105,0.82687104,-1.0550151,-0.51227105,-0.47542644,-0.26680973,0.4506332,1.7275542,-0.0458993,-0.58497703,1.9354013,-0.7816275,0.41807204
sujet33_pos,2.4724145,-0.16980748,0.27798712,-0.18329085,-0.14542338,-1.1130499,-0.040363163,0.15726905,-0.4273805,-1.7704737,-0.6357973,-0.48411888,0.09366469,0.19084881,-0.22580284,0.49744862,0.21568461,1.1566716,-0.0865266,-0.46172264,0.18082023,-0.48814195,0.54759675,-0.18643928,-0.43868265,-1.7623657,0.16320984,0.009290245,-0.6683817,-1.3874454,-1.033634,0.43063524,-0.10207621,0.32912523,-0.51168925,-0.003689912,0.15616116,-0.3029119,-0.052430455,-0.33603743,1.2654005,-0.5428151,0.19670536,-1.7946471,-1.4224178,1.2125823,-2.4707894,1.0581552,-1.0280588,0.09699988,0.2835813,-1.4188294,0.28812787,0.42432347,-0.67612475,-0.45270357,-0.24148946,1.0121976,-0.6036986,1.2971716,0.49093696,0.68394846,0.30482203,0.40014738,-1.1597719,-0.14389363,-0.47117004,0.18899779,0.9363942,0.73049647,1.1203703,0.042132355,1.0560501,-0.38484144,-0.113315046
sujet34_pos,2.9962833,0.4877162,0.1455285,-0.32703066,-0.17913121,-0.55440485,-0.0017419474,0.26320115,-0.03695461,-1.5344179,0.027387593,-0.410213,-0.19831634,-0.15167937,-0.15715036,0.70519835,0.15572342,0.3980236,-0.46340933,-0.68349266,-0.40562016,-0.2872256,0.19338718,0.053867783,0.23794374,-1.8322774,1.2116504,0.23108105,-1.4237003,-1.3803899,-0.41802225,0.7366511,0.5817729,-0.028216409,-0.20260689,-0.28109047,0.6443274,-1.302788,-0.7958623,0.3713374,0.7715279,-1.4267058,0.4460395,-0.25211278,-1.2048616,0.78674215,-1.4597194,-0.06649701,-0.40220633,-0.925829,0.11399607,-1.5401338,1.0469592,0.53114545,-0.6343877,-0.28638726,-0.108560674,0.8274114,-0.20801662,1.110381,-0.5711947,1.1824812,0.17812681,0.5963315,-0.05833794,-0.039186675,-0.08193061,0.42981586,1.4313726,1.1921993,-0.04458666,0.031448476,0.7074246,-0.3662752,-0.008442411
sujet35_pos,2.8032825,-0.62697494,0.19024435,-0.7880104,0.060238283,-0.2297655,-0.4230173,0.04049734,-0.23805432,-1.0714403,0.6441188,-0.42919296,-0.2222282,-0.16708443,0.058029268,1.2529203,0.37105298,0.339419,0.017220218,-1.0684669,-0.45405844,-0.3732634,0.4704618,0.35682452,0.09983151,-1.6064457,0.090694025,0.062180545,-0.40881884,-1.4929879,-0.70370257,0.6739183,0.53383523,0.5436193,-0.8712315,0.10169387,-0.020445615,0.08458556,-0.1112654,0.018519765,1.7033195,-0.67473423,0.17631316,-0.69214743,-1.5989078,1.2058202,-1.4579133,0.47271386,-0.9159331,-0.4013396,-0.6253265,-0.5891143,0.5003589,0.6133616,-1.2724311,-0.79914844,-0.9677969,1.2756033,0.39148322,1.2888142,-1.4442819,0.007077824,0.38514134,0.0674755,-1.2133636,0.15482822,0.13187459,0.40170416,1.1454911,0.57152486,-0.035549283,0.21826208,1.3517014,-1.1309446,0.8893681
sujet36_pos,2.4574778,-0.91342586,0.5814759,-0.6429544,0.14235845,-0.6292938,-0.5436464,-0.09693622,0.17568345,-1.4195251,0.49133694,-0.45181826,0.058259618,-0.57996505,-0.27688146,1.3001769,-0.49782014,0.6668487,-0.54004836,-0.9137289,0.4035145,-0.41319698,0.3256313,0.98517776,0.17623596,-1.4632732,0.86081475,-0.7149504,-1.2249483,-0.93962413,-0.09796425,0.7917601,0.6987157,0.9244678,-0.24175386,-0.19760934,-0.44189695,-0.41696936,-0.518243,0.97495645,1.291689,-0.98653424,0.75002027,-0.3801851,-1.6430197,1.4690181,-1.5404078,-0.05798293,-1.435671,-0.31070408,-0.3216485,-0.7457609,0.9054252,0.31585392,-0.7423895,-0.3410524,-0.9010979,1.1320224,0.16214232,0.8706839,-0.57866114,0.28755042,-0.043949135,0.7468959,-0.40441912,-0.15185444,-0.32484454,0.56480116,1.0480766,0.46531814,-0.20294125,-0.14827064,0.47668123,-0.02184037,0.7734205
sujet37_pos,2.5916746,-0.55023134,0.26053393,0.40584877,-0.26180962,-0.5672326,-0.63968915,-0.6647942,-0.09603886,-0.75472254,0.3675643,-0.1146383,-0.82707745,0.06345141,-0.81344086,0.055489156,-0.35736868,0.5072767,-0.39924398,-1.0971705,0.028427275,0.19188778,0.82976806,0.29560256,0.29602003,-1.5819551,0.8924323,-1.1211926,-0.647671,-1.3927602,-0.5845567,0.38889983,1.2108501,0.21675383,-1.8501511,-0.03474274,-0.059606016,-0.017144442,-0.94291955,0.6045845,1.4185927,-0.3551572,0.6856508,-1.1716764,-1.6827595,1.7346144,-2.5473704,0.46811604,-0.5772199,0.44067279,0.12696345,-1.6667035,0.9480324,0.6781142,-0.8416204,-0.53511435,-0.26796058,1.49952,-1.0016215,1.0798995,-0.6635253,-0.0034807217,0.3068402,1.2780787,-1.2250748,-0.3787421,-1.1055307,0.39420468,0.8736719,0.7954179,-0.11683923,0.23413774,1.1113068,-0.94278514,0.77070737
sujet38_pos,1.7952387,0.06510134,0.15527025,-0.059582792,-0.36924815,-1.0210863,-0.7850725,-0.05743713,0.36460546,-1.0175072,0.7138053,0.16659912,-0.6608102,-0.26654017,-0.50682724,1.0646857,0.1557285,1.0134381,-0.5670083,-1.245551,0.9415014,0.88432944,0.04066189,0.99607337,-0.18417099,-1.6843606,0.33521774,-0.90121186,-0.85347146,-0.71730816,-0.7588551,0.92265487,0.99147093,0.3138783,-0.67861205,-0.67248976,-0.083314754,-1.0299084,-0.968395,1.1202418,0.7899409,-1.0221281,1.1479751,-0.7801927,-1.7149086,0.9664794,-1.0320617,-0.18135583,-0.8914179,-0.24509257,1.2860664,-0.6938881,1.1250943,0.4416265,-0.46982735,-1.2735958,0.31919208,0.8198291,-0.32152575,0.9013393,-0.4102722,0.3700266,0.56903505,0.30698964,-0.5014567,-0.35627082,-0.5399631,-0.38169035,0.6194121,1.5340627,0.14152884,-0.026682079,1.5194126,-0.91517335,-0.001662063
sujet39_pos,2.9132712,0.2000056,-0.37590474,0.22870807,0.4629289,-0.6031531,-0.9833012,0.20292003,-0.18108632,-0.7280772,1.1989434,0.16855073,-0.5735089,0.63891166,0.0005636548,1.7817849,-0.16763493,0.078920774,-0.22817849,-1.4347149,-1.1940339,0.62175816,0.1021181,0.94059116,1.107486,-1.5262628,0.260365,-0.8614372,-0.5395652,-0.20437457,-0.8118754,0.62673235,1.5770868,0.4193725,-1.211117,-0.1748611,-0.21587303,-0.4391845,-0.9634416,0.28670064,1.343791,-0.36636,0.6291885,-0.9009077,-1.477596,1.0710069,-1.7744163,-0.5042263,-0.87078315,-0.17787373,-0.5001191,-1.1890687,0.054310184,0.18442172,-0.58831173,-0.9548941,-0.6523493,1.1609983,-0.20216851,1.1530267,-0.914222,-0.47869173,0.3197223,0.96617633,-1.2902794,-0.58445597,0.8213862,0.367794,0.8475225,0.8236735,0.5345683,0.05364292,1.0741173,-0.36294454,0.1286212
sujet40_pos,2.418472,-0.69754016,0.32770318,0.19983144,-0.9196618,-0.10829909,-1.028571,-0.05210024,0.41885138,-1.231583,0.07950276,-0.27774417,-0.40694517,0.7231328,-0.5538244,1.8775862,-0.22470444,0.87538,-0.5154568,-1.0739586,-0.31937504,0.3176843,-0.07881655,1.4579943,0.9719298,-1.2362678,0.36825892,-0.11538768,-0.96565634,-0.64994997,-1.0899153,0.9279674,0.717328,-0.00015981728,-0.7852065,-0.120777115,0.024163023,-1.0297935,-1.5356078,0.9009375,0.62014186,-0.38264602,0.5804018,0.32142687,-0.9323716,0.9556455,-2.6577713,-0.27724412,-1.4018301,-1.3777751,0.4926538,-0.91580397,0.6266297,0.1225793,-0.4295751,-0.6838216,-1.1347209,1.3737575,0.12400639,1.2229393,-0.9537424,-1.7369311,0.0821547,0.4227667,-0.8082621,-0.2593635,-0.57490915,0.77216405,0.3921283,0.9341612,0.46616846,0.27352753,1.4268547,-0.5657423,0.67028457
sujet41_pos,2.8223355,-0.39461112,0.14557803,-0.5390133,-0.68690103,-0.5356991,-0.6818846,0.3850614,-0.3324353,-1.2735554,1.0463916,0.18783551,-0.22605474,0.49742645,-0.2633452,0.8775705,-0.0836862,0.5500011,-0.3171315,-1.6371444,-0.34357625,0.36646345,0.75964105,0.116217256,0.108875915,-0.617383,1.1236393,0.04366943,-1.2093409,-1.1321255,-0.4262909,0.3979061,0.7008017,1.4123474,-1.0244687,-0.020986881,-0.16649112,0.23679745,-1.122347,0.28740615,0.7704621,-1.0484927,0.20442042,-0.2754188,-0.94580215,1.2248574,-1.6025862,0.09917642,-1.3013529,-0.80354774,-0.7687069,-1.1380723,0.62008595,0.68381786,-1.2061281,-0.375788,-0.31821007,1.6427832,-0.32939678,1.7387202,-0.6832128,-0.42319632,0.3714133,0.748123,-1.1597366,-0.46807036,0.034104295,0.26316175,1.5950578,0.96188223,0.45820907,0.43210113,0.99931496,-0.8798794,-0.16536869
